digraph Tree {
node [shape=box] ;
0 [label="X[3] <= 0.5\nentropy = 0.8795\nsamples = 1407\nvalue = [987, 420]"] ;
1 [label="entropy = 0.0\nsamples = 465\nvalue = [465, 0]"] ;
0 -> 1 [labeldistance=2.5, labelangle=45, headlabel="True"] ;
2 [label="X[0] <= 1.5\nentropy = 0.9915\nsamples = 942\nvalue = [522, 420]"] ;
0 -> 2 [labeldistance=2.5, labelangle=-45, headlabel="False"] ;
3 [label="X[4] <= 0.5\nentropy = 0.977\nsamples = 472\nvalue = [194, 278]"] ;
2 -> 3 ;
4 [label="X[1] <= 2.5\nentropy = 0.9983\nsamples = 166\nvalue = [87, 79]"] ;
3 -> 4 ;
5 [label="X[2] <= 0.5\nentropy = 0.993\nsamples = 122\nvalue = [55, 67]"] ;
4 -> 5 ;
6 [label="X[3] <= 1.5\nentropy = 0.9284\nsamples = 32\nvalue = [21, 11]"] ;
5 -> 6 ;
7 [label="X[1] <= 1.5\nentropy = 0.9641\nsamples = 18\nvalue = [7, 11]"] ;
6 -> 7 ;
8 [label="X[0] <= 0.5\nentropy = 0.9183\nsamples = 12\nvalue = [4, 8]"] ;
7 -> 8 ;
9 [label="entropy = 0.9183\nsamples = 6\nvalue = [2, 4]"] ;
8 -> 9 ;
10 [label="entropy = 0.9183\nsamples = 6\nvalue = [2, 4]"] ;
8 -> 10 ;
11 [label="entropy = 1.0\nsamples = 6\nvalue = [3, 3]"] ;
7 -> 11 ;
12 [label="entropy = 0.0\nsamples = 14\nvalue = [14, 0]"] ;
6 -> 12 ;
13 [label="X[1] <= 1.5\nentropy = 0.9565\nsamples = 90\nvalue = [34, 56]"] ;
5 -> 13 ;
14 [label="X[2] <= 2.5\nentropy = 0.9066\nsamples = 59\nvalue = [19, 40]"] ;
13 -> 14 ;
15 [label="X[0] <= 0.5\nentropy = 0.9262\nsamples = 41\nvalue = [14, 27]"] ;
14 -> 15 ;
16 [label="X[3] <= 1.5\nentropy = 0.971\nsamples = 20\nvalue = [8, 12]"] ;
15 -> 16 ;
17 [label="X[2] <= 1.5\nentropy = 0.9457\nsamples = 11\nvalue = [4, 7]"] ;
16 -> 17 ;
18 [label="entropy = 0.971\nsamples = 5\nvalue = [2, 3]"] ;
17 -> 18 ;
19 [label="entropy = 0.9183\nsamples = 6\nvalue = [2, 4]"] ;
17 -> 19 ;
20 [label="entropy = 0.9911\nsamples = 9\nvalue = [4, 5]"] ;
16 -> 20 ;
21 [label="X[1] <= 0.5\nentropy = 0.8631\nsamples = 21\nvalue = [6, 15]"] ;
15 -> 21 ;
22 [label="entropy = 0.7219\nsamples = 10\nvalue = [2, 8]"] ;
21 -> 22 ;
23 [label="X[3] <= 1.5\nentropy = 0.9457\nsamples = 11\nvalue = [4, 7]"] ;
21 -> 23 ;
24 [label="entropy = 0.9183\nsamples = 6\nvalue = [2, 4]"] ;
23 -> 24 ;
25 [label="entropy = 0.971\nsamples = 5\nvalue = [2, 3]"] ;
23 -> 25 ;
26 [label="X[0] <= 0.5\nentropy = 0.8524\nsamples = 18\nvalue = [5, 13]"] ;
14 -> 26 ;
27 [label="entropy = 0.7642\nsamples = 9\nvalue = [2, 7]"] ;
26 -> 27 ;
28 [label="entropy = 0.9183\nsamples = 9\nvalue = [3, 6]"] ;
26 -> 28 ;
29 [label="X[0] <= 0.5\nentropy = 0.9992\nsamples = 31\nvalue = [15, 16]"] ;
13 -> 29 ;
30 [label="X[3] <= 1.5\nentropy = 0.8631\nsamples = 14\nvalue = [4, 10]"] ;
29 -> 30 ;
31 [label="entropy = 0.9852\nsamples = 7\nvalue = [3, 4]"] ;
30 -> 31 ;
32 [label="entropy = 0.5917\nsamples = 7\nvalue = [1, 6]"] ;
30 -> 32 ;
33 [label="X[3] <= 1.5\nentropy = 0.9367\nsamples = 17\nvalue = [11, 6]"] ;
29 -> 33 ;
34 [label="entropy = 0.9183\nsamples = 9\nvalue = [6, 3]"] ;
33 -> 34 ;
35 [label="entropy = 0.9544\nsamples = 8\nvalue = [5, 3]"] ;
33 -> 35 ;
36 [label="X[2] <= 0.5\nentropy = 0.8454\nsamples = 44\nvalue = [32, 12]"] ;
4 -> 36 ;
37 [label="X[3] <= 1.5\nentropy = 0.4395\nsamples = 11\nvalue = [10, 1]"] ;
36 -> 37 ;
38 [label="entropy = 0.7219\nsamples = 5\nvalue = [4, 1]"] ;
37 -> 38 ;
39 [label="entropy = 0.0\nsamples = 6\nvalue = [6, 0]"] ;
37 -> 39 ;
40 [label="X[2] <= 2.5\nentropy = 0.9183\nsamples = 33\nvalue = [22, 11]"] ;
36 -> 40 ;
41 [label="X[2] <= 1.5\nentropy = 0.9321\nsamples = 23\nvalue = [15, 8]"] ;
40 -> 41 ;
42 [label="X[3] <= 1.5\nentropy = 0.9457\nsamples = 11\nvalue = [7, 4]"] ;
41 -> 42 ;
43 [label="entropy = 0.971\nsamples = 5\nvalue = [3, 2]"] ;
42 -> 43 ;
44 [label="entropy = 0.9183\nsamples = 6\nvalue = [4, 2]"] ;
42 -> 44 ;
45 [label="X[0] <= 0.5\nentropy = 0.9183\nsamples = 12\nvalue = [8, 4]"] ;
41 -> 45 ;
46 [label="entropy = 0.9183\nsamples = 6\nvalue = [4, 2]"] ;
45 -> 46 ;
47 [label="entropy = 0.9183\nsamples = 6\nvalue = [4, 2]"] ;
45 -> 47 ;
48 [label="entropy = 0.8813\nsamples = 10\nvalue = [7, 3]"] ;
40 -> 48 ;
49 [label="X[1] <= 1.5\nentropy = 0.9338\nsamples = 306\nvalue = [107, 199]"] ;
3 -> 49 ;
50 [label="X[4] <= 1.5\nentropy = 0.8941\nsamples = 148\nvalue = [46, 102]"] ;
49 -> 50 ;
51 [label="X[3] <= 1.5\nentropy = 0.8004\nsamples = 74\nvalue = [18, 56]"] ;
50 -> 51 ;
52 [label="X[0] <= 0.5\nentropy = 0.65\nsamples = 36\nvalue = [6, 30]"] ;
51 -> 52 ;
53 [label="X[2] <= 1.5\nentropy = 0.7219\nsamples = 20\nvalue = [4, 16]"] ;
52 -> 53 ;
54 [label="entropy = 0.5033\nsamples = 9\nvalue = [1, 8]"] ;
53 -> 54 ;
55 [label="X[1] <= 0.5\nentropy = 0.8454\nsamples = 11\nvalue = [3, 8]"] ;
53 -> 55 ;
56 [label="entropy = 0.9183\nsamples = 6\nvalue = [2, 4]"] ;
55 -> 56 ;
57 [label="entropy = 0.7219\nsamples = 5\nvalue = [1, 4]"] ;
55 -> 57 ;
58 [label="X[2] <= 1.5\nentropy = 0.5436\nsamples = 16\nvalue = [2, 14]"] ;
52 -> 58 ;
59 [label="entropy = 0.7642\nsamples = 9\nvalue = [2, 7]"] ;
58 -> 59 ;
60 [label="entropy = 0.0\nsamples = 7\nvalue = [0, 7]"] ;
58 -> 60 ;
61 [label="X[1] <= 0.5\nentropy = 0.8997\nsamples = 38\nvalue = [12, 26]"] ;
51 -> 61 ;
62 [label="X[2] <= 2.5\nentropy = 0.8315\nsamples = 19\nvalue = [5, 14]"] ;
61 -> 62 ;
63 [label="X[0] <= 0.5\nentropy = 0.7496\nsamples = 14\nvalue = [3, 11]"] ;
62 -> 63 ;
64 [label="entropy = 0.8631\nsamples = 7\nvalue = [2, 5]"] ;
63 -> 64 ;
65 [label="entropy = 0.5917\nsamples = 7\nvalue = [1, 6]"] ;
63 -> 65 ;
66 [label="entropy = 0.971\nsamples = 5\nvalue = [2, 3]"] ;
62 -> 66 ;
67 [label="X[0] <= 0.5\nentropy = 0.9495\nsamples = 19\nvalue = [7, 12]"] ;
61 -> 67 ;
68 [label="entropy = 0.971\nsamples = 10\nvalue = [4, 6]"] ;
67 -> 68 ;
69 [label="entropy = 0.9183\nsamples = 9\nvalue = [3, 6]"] ;
67 -> 69 ;
70 [label="X[0] <= 0.5\nentropy = 0.9569\nsamples = 74\nvalue = [28, 46]"] ;
50 -> 70 ;
71 [label="X[3] <= 1.5\nentropy = 0.9852\nsamples = 35\nvalue = [15, 20]"] ;
70 -> 71 ;
72 [label="X[2] <= 0.5\nentropy = 0.9641\nsamples = 18\nvalue = [7, 11]"] ;
71 -> 72 ;
73 [label="entropy = 1.0\nsamples = 4\nvalue = [2, 2]"] ;
72 -> 73 ;
74 [label="X[1] <= 0.5\nentropy = 0.9403\nsamples = 14\nvalue = [5, 9]"] ;
72 -> 74 ;
75 [label="entropy = 0.9183\nsamples = 6\nvalue = [2, 4]"] ;
74 -> 75 ;
76 [label="entropy = 0.9544\nsamples = 8\nvalue = [3, 5]"] ;
74 -> 76 ;
77 [label="X[2] <= 0.5\nentropy = 0.9975\nsamples = 17\nvalue = [8, 9]"] ;
71 -> 77 ;
78 [label="entropy = 0.971\nsamples = 5\nvalue = [2, 3]"] ;
77 -> 78 ;
79 [label="X[2] <= 1.5\nentropy = 1.0\nsamples = 12\nvalue = [6, 6]"] ;
77 -> 79 ;
80 [label="entropy = 0.9183\nsamples = 3\nvalue = [2, 1]"] ;
79 -> 80 ;
81 [label="entropy = 0.9911\nsamples = 9\nvalue = [4, 5]"] ;
79 -> 81 ;
82 [label="X[2] <= 1.5\nentropy = 0.9183\nsamples = 39\nvalue = [13, 26]"] ;
70 -> 82 ;
83 [label="X[3] <= 1.5\nentropy = 0.896\nsamples = 16\nvalue = [5, 11]"] ;
82 -> 83 ;
84 [label="entropy = 0.9544\nsamples = 8\nvalue = [3, 5]"] ;
83 -> 84 ;
85 [label="entropy = 0.8113\nsamples = 8\nvalue = [2, 6]"] ;
83 -> 85 ;
86 [label="X[1] <= 0.5\nentropy = 0.9321\nsamples = 23\nvalue = [8, 15]"] ;
82 -> 86 ;
87 [label="X[2] <= 2.5\nentropy = 0.9457\nsamples = 11\nvalue = [4, 7]"] ;
86 -> 87 ;
88 [label="entropy = 0.971\nsamples = 5\nvalue = [2, 3]"] ;
87 -> 88 ;
89 [label="entropy = 0.9183\nsamples = 6\nvalue = [2, 4]"] ;
87 -> 89 ;
90 [label="X[3] <= 1.5\nentropy = 0.9183\nsamples = 12\nvalue = [4, 8]"] ;
86 -> 90 ;
91 [label="entropy = 0.9183\nsamples = 6\nvalue = [2, 4]"] ;
90 -> 91 ;
92 [label="entropy = 0.9183\nsamples = 6\nvalue = [2, 4]"] ;
90 -> 92 ;
93 [label="X[4] <= 1.5\nentropy = 0.9622\nsamples = 158\nvalue = [61, 97]"] ;
49 -> 93 ;
94 [label="X[2] <= 1.5\nentropy = 0.9931\nsamples = 82\nvalue = [37, 45]"] ;
93 -> 94 ;
95 [label="X[0] <= 0.5\nentropy = 0.9852\nsamples = 42\nvalue = [24, 18]"] ;
94 -> 95 ;
96 [label="X[1] <= 2.5\nentropy = 0.9984\nsamples = 21\nvalue = [11, 10]"] ;
95 -> 96 ;
97 [label="entropy = 0.971\nsamples = 10\nvalue = [4, 6]"] ;
96 -> 97 ;
98 [label="X[2] <= 0.5\nentropy = 0.9457\nsamples = 11\nvalue = [7, 4]"] ;
96 -> 98 ;
99 [label="entropy = 0.9183\nsamples = 6\nvalue = [4, 2]"] ;
98 -> 99 ;
100 [label="entropy = 0.971\nsamples = 5\nvalue = [3, 2]"] ;
98 -> 100 ;
101 [label="X[3] <= 1.5\nentropy = 0.9587\nsamples = 21\nvalue = [13, 8]"] ;
95 -> 101 ;
102 [label="X[2] <= 0.5\nentropy = 0.8454\nsamples = 11\nvalue = [8, 3]"] ;
101 -> 102 ;
103 [label="entropy = 0.9183\nsamples = 6\nvalue = [4, 2]"] ;
102 -> 103 ;
104 [label="entropy = 0.7219\nsamples = 5\nvalue = [4, 1]"] ;
102 -> 104 ;
105 [label="entropy = 1.0\nsamples = 10\nvalue = [5, 5]"] ;
101 -> 105 ;
106 [label="X[0] <= 0.5\nentropy = 0.9097\nsamples = 40\nvalue = [13, 27]"] ;
94 -> 106 ;
107 [label="X[2] <= 2.5\nentropy = 0.971\nsamples = 20\nvalue = [8, 12]"] ;
106 -> 107 ;
108 [label="X[3] <= 1.5\nentropy = 0.9457\nsamples = 11\nvalue = [4, 7]"] ;
107 -> 108 ;
109 [label="entropy = 0.971\nsamples = 5\nvalue = [2, 3]"] ;
108 -> 109 ;
110 [label="entropy = 0.9183\nsamples = 6\nvalue = [2, 4]"] ;
108 -> 110 ;
111 [label="entropy = 0.9911\nsamples = 9\nvalue = [4, 5]"] ;
107 -> 111 ;
112 [label="X[2] <= 2.5\nentropy = 0.8113\nsamples = 20\nvalue = [5, 15]"] ;
106 -> 112 ;
113 [label="entropy = 0.8813\nsamples = 10\nvalue = [3, 7]"] ;
112 -> 113 ;
114 [label="entropy = 0.7219\nsamples = 10\nvalue = [2, 8]"] ;
112 -> 114 ;
115 [label="X[3] <= 1.5\nentropy = 0.8997\nsamples = 76\nvalue = [24, 52]"] ;
93 -> 115 ;
116 [label="X[2] <= 2.5\nentropy = 0.9262\nsamples = 41\nvalue = [14, 27]"] ;
115 -> 116 ;
117 [label="X[0] <= 0.5\nentropy = 0.9481\nsamples = 30\nvalue = [11, 19]"] ;
116 -> 117 ;
118 [label="X[2] <= 1.5\nentropy = 0.971\nsamples = 15\nvalue = [6, 9]"] ;
117 -> 118 ;
119 [label="X[1] <= 2.5\nentropy = 0.9457\nsamples = 11\nvalue = [4, 7]"] ;
118 -> 119 ;
120 [label="entropy = 0.9183\nsamples = 6\nvalue = [2, 4]"] ;
119 -> 120 ;
121 [label="entropy = 0.971\nsamples = 5\nvalue = [2, 3]"] ;
119 -> 121 ;
122 [label="entropy = 1.0\nsamples = 4\nvalue = [2, 2]"] ;
118 -> 122 ;
123 [label="X[2] <= 1.5\nentropy = 0.9183\nsamples = 15\nvalue = [5, 10]"] ;
117 -> 123 ;
124 [label="X[1] <= 2.5\nentropy = 0.9457\nsamples = 11\nvalue = [4, 7]"] ;
123 -> 124 ;
125 [label="entropy = 0.971\nsamples = 5\nvalue = [2, 3]"] ;
124 -> 125 ;
126 [label="entropy = 0.9183\nsamples = 6\nvalue = [2, 4]"] ;
124 -> 126 ;
127 [label="entropy = 0.8113\nsamples = 4\nvalue = [1, 3]"] ;
123 -> 127 ;
128 [label="X[1] <= 2.5\nentropy = 0.8454\nsamples = 11\nvalue = [3, 8]"] ;
116 -> 128 ;
129 [label="entropy = 0.9183\nsamples = 6\nvalue = [2, 4]"] ;
128 -> 129 ;
130 [label="entropy = 0.7219\nsamples = 5\nvalue = [1, 4]"] ;
128 -> 130 ;
131 [label="X[2] <= 2.5\nentropy = 0.8631\nsamples = 35\nvalue = [10, 25]"] ;
115 -> 131 ;
132 [label="X[2] <= 1.5\nentropy = 0.7793\nsamples = 26\nvalue = [6, 20]"] ;
131 -> 132 ;
133 [label="X[0] <= 0.5\nentropy = 0.8315\nsamples = 19\nvalue = [5, 14]"] ;
132 -> 133 ;
134 [label="entropy = 0.7219\nsamples = 10\nvalue = [2, 8]"] ;
133 -> 134 ;
135 [label="entropy = 0.9183\nsamples = 9\nvalue = [3, 6]"] ;
133 -> 135 ;
136 [label="entropy = 0.5917\nsamples = 7\nvalue = [1, 6]"] ;
132 -> 136 ;
137 [label="entropy = 0.9911\nsamples = 9\nvalue = [4, 5]"] ;
131 -> 137 ;
138 [label="X[1] <= 2.5\nentropy = 0.8839\nsamples = 470\nvalue = [328, 142]"] ;
2 -> 138 ;
139 [label="X[4] <= 1.5\nentropy = 0.9716\nsamples = 354\nvalue = [212, 142]"] ;
138 -> 139 ;
140 [label="X[2] <= 0.5\nentropy = 0.9022\nsamples = 239\nvalue = [163, 76]"] ;
139 -> 140 ;
141 [label="X[4] <= 0.5\nentropy = 0.6681\nsamples = 63\nvalue = [52, 11]"] ;
140 -> 141 ;
142 [label="X[3] <= 1.5\nentropy = 0.469\nsamples = 30\nvalue = [27, 3]"] ;
141 -> 142 ;
143 [label="X[0] <= 2.5\nentropy = 0.7496\nsamples = 14\nvalue = [11, 3]"] ;
142 -> 143 ;
144 [label="entropy = 0.9544\nsamples = 8\nvalue = [5, 3]"] ;
143 -> 144 ;
145 [label="entropy = 0.0\nsamples = 6\nvalue = [6, 0]"] ;
143 -> 145 ;
146 [label="entropy = 0.0\nsamples = 16\nvalue = [16, 0]"] ;
142 -> 146 ;
147 [label="X[1] <= 1.5\nentropy = 0.799\nsamples = 33\nvalue = [25, 8]"] ;
141 -> 147 ;
148 [label="X[3] <= 1.5\nentropy = 0.9024\nsamples = 22\nvalue = [15, 7]"] ;
147 -> 148 ;
149 [label="X[1] <= 0.5\nentropy = 0.8454\nsamples = 11\nvalue = [8, 3]"] ;
148 -> 149 ;
150 [label="entropy = 0.9183\nsamples = 6\nvalue = [4, 2]"] ;
149 -> 150 ;
151 [label="entropy = 0.7219\nsamples = 5\nvalue = [4, 1]"] ;
149 -> 151 ;
152 [label="X[0] <= 2.5\nentropy = 0.9457\nsamples = 11\nvalue = [7, 4]"] ;
148 -> 152 ;
153 [label="entropy = 0.971\nsamples = 5\nvalue = [3, 2]"] ;
152 -> 153 ;
154 [label="entropy = 0.9183\nsamples = 6\nvalue = [4, 2]"] ;
152 -> 154 ;
155 [label="X[0] <= 2.5\nentropy = 0.4395\nsamples = 11\nvalue = [10, 1]"] ;
147 -> 155 ;
156 [label="entropy = 0.7219\nsamples = 5\nvalue = [4, 1]"] ;
155 -> 156 ;
157 [label="entropy = 0.0\nsamples = 6\nvalue = [6, 0]"] ;
155 -> 157 ;
158 [label="X[1] <= 1.5\nentropy = 0.9501\nsamples = 176\nvalue = [111, 65]"] ;
140 -> 158 ;
159 [label="X[4] <= 0.5\nentropy = 0.9867\nsamples = 118\nvalue = [67, 51]"] ;
158 -> 159 ;
160 [label="X[2] <= 1.5\nentropy = 0.9183\nsamples = 60\nvalue = [40, 20]"] ;
159 -> 160 ;
161 [label="X[1] <= 0.5\nentropy = 0.9457\nsamples = 22\nvalue = [14, 8]"] ;
160 -> 161 ;
162 [label="X[0] <= 2.5\nentropy = 0.9183\nsamples = 12\nvalue = [8, 4]"] ;
161 -> 162 ;
163 [label="entropy = 0.9183\nsamples = 6\nvalue = [4, 2]"] ;
162 -> 163 ;
164 [label="entropy = 0.9183\nsamples = 6\nvalue = [4, 2]"] ;
162 -> 164 ;
165 [label="entropy = 0.971\nsamples = 10\nvalue = [6, 4]"] ;
161 -> 165 ;
166 [label="X[1] <= 0.5\nentropy = 0.8997\nsamples = 38\nvalue = [26, 12]"] ;
160 -> 166 ;
167 [label="X[2] <= 2.5\nentropy = 0.9495\nsamples = 19\nvalue = [12, 7]"] ;
166 -> 167 ;
168 [label="entropy = 0.8813\nsamples = 10\nvalue = [7, 3]"] ;
167 -> 168 ;
169 [label="entropy = 0.9911\nsamples = 9\nvalue = [5, 4]"] ;
167 -> 169 ;
170 [label="X[0] <= 2.5\nentropy = 0.8315\nsamples = 19\nvalue = [14, 5]"] ;
166 -> 170 ;
171 [label="entropy = 0.5917\nsamples = 7\nvalue = [6, 1]"] ;
170 -> 171 ;
172 [label="X[2] <= 2.5\nentropy = 0.9183\nsamples = 12\nvalue = [8, 4]"] ;
170 -> 172 ;
173 [label="entropy = 0.9183\nsamples = 6\nvalue = [4, 2]"] ;
172 -> 173 ;
174 [label="entropy = 0.9183\nsamples = 6\nvalue = [4, 2]"] ;
172 -> 174 ;
175 [label="X[2] <= 1.5\nentropy = 0.9966\nsamples = 58\nvalue = [27, 31]"] ;
159 -> 175 ;
176 [label="X[3] <= 1.5\nentropy = 0.971\nsamples = 20\nvalue = [12, 8]"] ;
175 -> 176 ;
177 [label="entropy = 0.7219\nsamples = 10\nvalue = [8, 2]"] ;
176 -> 177 ;
178 [label="entropy = 0.971\nsamples = 10\nvalue = [4, 6]"] ;
176 -> 178 ;
179 [label="X[2] <= 2.5\nentropy = 0.9678\nsamples = 38\nvalue = [15, 23]"] ;
175 -> 179 ;
180 [label="X[0] <= 2.5\nentropy = 0.9968\nsamples = 15\nvalue = [7, 8]"] ;
179 -> 180 ;
181 [label="entropy = 1.0\nsamples = 8\nvalue = [4, 4]"] ;
180 -> 181 ;
182 [label="entropy = 0.9852\nsamples = 7\nvalue = [3, 4]"] ;
180 -> 182 ;
183 [label="X[0] <= 2.5\nentropy = 0.9321\nsamples = 23\nvalue = [8, 15]"] ;
179 -> 183 ;
184 [label="X[3] <= 1.5\nentropy = 0.9457\nsamples = 11\nvalue = [4, 7]"] ;
183 -> 184 ;
185 [label="entropy = 0.9183\nsamples = 6\nvalue = [2, 4]"] ;
184 -> 185 ;
186 [label="entropy = 0.971\nsamples = 5\nvalue = [2, 3]"] ;
184 -> 186 ;
187 [label="X[3] <= 1.5\nentropy = 0.9183\nsamples = 12\nvalue = [4, 8]"] ;
183 -> 187 ;
188 [label="entropy = 0.9183\nsamples = 6\nvalue = [2, 4]"] ;
187 -> 188 ;
189 [label="entropy = 0.9183\nsamples = 6\nvalue = [2, 4]"] ;
187 -> 189 ;
190 [label="X[0] <= 2.5\nentropy = 0.7973\nsamples = 58\nvalue = [44, 14]"] ;
158 -> 190 ;
191 [label="X[4] <= 0.5\nentropy = 0.9932\nsamples = 31\nvalue = [17, 14]"] ;
190 -> 191 ;
192 [label="X[2] <= 2.5\nentropy = 0.9367\nsamples = 17\nvalue = [11, 6]"] ;
191 -> 192 ;
193 [label="X[2] <= 1.5\nentropy = 0.9183\nsamples = 12\nvalue = [8, 4]"] ;
192 -> 193 ;
194 [label="entropy = 0.9183\nsamples = 6\nvalue = [4, 2]"] ;
193 -> 194 ;
195 [label="entropy = 0.9183\nsamples = 6\nvalue = [4, 2]"] ;
193 -> 195 ;
196 [label="entropy = 0.971\nsamples = 5\nvalue = [3, 2]"] ;
192 -> 196 ;
197 [label="X[3] <= 1.5\nentropy = 0.9852\nsamples = 14\nvalue = [6, 8]"] ;
191 -> 197 ;
198 [label="entropy = 1.0\nsamples = 8\nvalue = [4, 4]"] ;
197 -> 198 ;
199 [label="entropy = 0.9183\nsamples = 6\nvalue = [2, 4]"] ;
197 -> 199 ;
200 [label="entropy = 0.0\nsamples = 27\nvalue = [27, 0]"] ;
190 -> 200 ;
201 [label="X[1] <= 1.5\nentropy = 0.9842\nsamples = 115\nvalue = [49, 66]"] ;
139 -> 201 ;
202 [label="X[2] <= 1.5\nentropy = 0.8797\nsamples = 77\nvalue = [23, 54]"] ;
201 -> 202 ;
203 [label="X[2] <= 0.5\nentropy = 0.9183\nsamples = 39\nvalue = [13, 26]"] ;
202 -> 203 ;
204 [label="X[1] <= 0.5\nentropy = 0.9024\nsamples = 22\nvalue = [7, 15]"] ;
203 -> 204 ;
205 [label="entropy = 0.8813\nsamples = 10\nvalue = [3, 7]"] ;
204 -> 205 ;
206 [label="X[3] <= 1.5\nentropy = 0.9183\nsamples = 12\nvalue = [4, 8]"] ;
204 -> 206 ;
207 [label="entropy = 0.9183\nsamples = 6\nvalue = [2, 4]"] ;
206 -> 207 ;
208 [label="entropy = 0.9183\nsamples = 6\nvalue = [2, 4]"] ;
206 -> 208 ;
209 [label="X[1] <= 0.5\nentropy = 0.9367\nsamples = 17\nvalue = [6, 11]"] ;
203 -> 209 ;
210 [label="entropy = 0.971\nsamples = 10\nvalue = [4, 6]"] ;
209 -> 210 ;
211 [label="entropy = 0.8631\nsamples = 7\nvalue = [2, 5]"] ;
209 -> 211 ;
212 [label="X[0] <= 2.5\nentropy = 0.8315\nsamples = 38\nvalue = [10, 28]"] ;
202 -> 212 ;
213 [label="X[2] <= 2.5\nentropy = 0.9341\nsamples = 20\nvalue = [7, 13]"] ;
212 -> 213 ;
214 [label="entropy = 0.971\nsamples = 10\nvalue = [4, 6]"] ;
213 -> 214 ;
215 [label="entropy = 0.8813\nsamples = 10\nvalue = [3, 7]"] ;
213 -> 215 ;
216 [label="X[1] <= 0.5\nentropy = 0.65\nsamples = 18\nvalue = [3, 15]"] ;
212 -> 216 ;
217 [label="entropy = 0.5436\nsamples = 8\nvalue = [1, 7]"] ;
216 -> 217 ;
218 [label="entropy = 0.7219\nsamples = 10\nvalue = [2, 8]"] ;
216 -> 218 ;
219 [label="X[0] <= 2.5\nentropy = 0.8997\nsamples = 38\nvalue = [26, 12]"] ;
201 -> 219 ;
220 [label="X[2] <= 0.5\nentropy = 0.9183\nsamples = 18\nvalue = [6, 12]"] ;
219 -> 220 ;
221 [label="entropy = 0.8113\nsamples = 4\nvalue = [1, 3]"] ;
220 -> 221 ;
222 [label="X[3] <= 1.5\nentropy = 0.9403\nsamples = 14\nvalue = [5, 9]"] ;
220 -> 222 ;
223 [label="entropy = 0.9852\nsamples = 7\nvalue = [3, 4]"] ;
222 -> 223 ;
224 [label="entropy = 0.8631\nsamples = 7\nvalue = [2, 5]"] ;
222 -> 224 ;
225 [label="entropy = 0.0\nsamples = 20\nvalue = [20, 0]"] ;
219 -> 225 ;
226 [label="entropy = 0.0\nsamples = 116\nvalue = [116, 0]"] ;
138 -> 226 ;
}